{
  "model_params": {
    "W": [
      [
        -0.07154318770933317,
        -0.0023784324894044976,
        0.07392162019873771
      ],
      [
        1.1383504271540952,
        -1.0714312042852172,
        -0.06691922286888041
      ],
      [
        -1.220832324852966,
        1.1988186391719982,
        0.022013685680965674
      ],
      [
        -0.8723299547959614,
        0.6223752648714674,
        0.24995468992449243
      ],
      [
        -0.710766670117952,
        -0.7455087586752338,
        1.4562754287931845
      ],
      [
        -0.4465393518799607,
        -0.5148583858149082,
        0.9613977376948688
      ],
      [
        1.6910280318116804,
        -1.5665583626946369,
        -0.1244696691170379
      ],
      [
        0.7871356359832723,
        -0.6995567314272383,
        -0.08757890455603455
      ],
      [
        0.03424645100882879,
        -0.0033580855559608466,
        -0.030888365452867786
      ],
      [
        -0.004009380633702857,
        0.03840047885897555,
        -0.03439109822527268
      ],
      [
        -0.8622722400920312,
        0.7911704006944712,
        0.07110183939755865
      ],
      [
        -0.44809461412555407,
        0.42077658109544847,
        0.027318033030106784
      ],
      [
        -1.1269681583202675,
        1.1016649015434086,
        0.02530325677686181
      ],
      [
        0.01982604928827392,
        -0.005304284747328756,
        -0.014521764540945217
      ],
      [
        -0.04176818583500628,
        -0.046720802787282203,
        0.08848898862228831
      ],
      [
        0.048608322728240685,
        -0.019282704837683746,
        -0.029325617890557047
      ],
      [
        0.009749600157274389,
        0.002986810414720084,
        -0.0127364105719945
      ]
    ],
    "b": [
      [
        0.40584000124201847,
        1.2979936296695873,
        -1.7038336309116024
      ]
    ],
    "lr": 0.05
  },
  "scaler_params": {
    "mean": [
      21.636,
      5.969950000000001,
      5.0335,
      0.0495,
      0.044,
      0.018,
      3.008,
      0.802,
      0.2935,
      3.031,
      2.515,
      0.1025,
      3.052,
      0.7,
      0.1065,
      3.5125,
      0.4985
    ],
    "std": [
      11.899727055693337,
      1.497685546935671,
      3.121598588864366,
      0.21690954335851617,
      0.20509509989270833,
      0.132951118836962,
      1.3870602005680934,
      0.3984921580156879,
      0.45536551252812285,
      1.4296989193533023,
      1.7169085590094775,
      0.3033047147671793,
      1.424533607887157,
      0.45825756949558394,
      0.30847649829444057,
      1.1094339773055448,
      0.4999977499949375
    ]
  },
  "feature_order": [
    "dias_posparto",
    "horas_sueno",
    "nivel_dolor",
    "fiebre_madre",
    "fiebre_bebe",
    "sangrado_abundante",
    "estado_animo",
    "apoyo_social",
    "dificultad_lactancia",
    "llanto_bebe",
    "dolor_cabecera",
    "hinchazon_edema",
    "nivel_ansiedad",
    "actividad_fisica",
    "perdida_apetito",
    "vinculo_bebe",
    "tipo_parto"
  ]
}